<?xml version="1.0"?>
<opencv_storage>
<myball type_id="opencv-haar-classifier">
  <size>
    24 24</size>
  <stages>
    <_>
      <trees>
        <_>
          <_>
            <feature>
              <rects>
                <_>
                  0 13 22 5 -1.</_>
                <_>
                  11 13 11 5 2.</_></rects>
              <tilted>0</tilted></feature>
            <threshold>0.1353752017021179</threshold>
            <left_val>-0.3220339119434357</left_val>
            <right_val>0.9047622084617615</right_val></_></_>
        <_>
          <_>
            <feature>
              <rects>
                <_>
                  11 3 3 18 -1.</_>
                <_>
                  12 3 1 18 3.</_></rects>
              <tilted>0</tilted></feature>
            <threshold>5.2688629366457462e-003</threshold>
            <left_val>0.2419648021459580</left_val>
            <right_val>-0.7441030740737915</right_val></_></_>
        <_>
          <_>
            <feature>
              <rects>
                <_>
                  10 3 3 18 -1.</_>
                <_>
                  11 3 1 18 3.</_></rects>
              <tilted>0</tilted></feature>
            <threshold>7.0214979350566864e-003</threshold>
            <left_val>0.2082270979881287</left_val>
            <right_val>-0.9892296791076660</right_val></_></_>
        <_>
          <_>
            <feature>
              <rects>
                <_>
                  12 0 3 13 -1.</_>
                <_>
                  13 0 1 13 3.</_></rects>
              <tilted>0</tilted></feature>
            <threshold>5.0185918807983398e-003</threshold>
            <left_val>0.1322861015796661</left_val>
            <right_val>-0.9263281822204590</right_val></_></_>
        <_>
          <_>
            <feature>
              <rects>
                <_>
                  0 15 20 3 -1.</_>
                <_>
                  0 16 20 1 3.</_></rects>
              <tilted>0</tilted></feature>
            <threshold>8.1283506006002426e-003</threshold>
            <left_val>0.1917770057916641</left_val>
            <right_val>-0.9569013118743897</right_val></_></_></trees>
      <stage_threshold>-0.6964570879936218</stage_threshold>
      <parent>-1</parent>
      <next>-1</next></_>
    <_>
      <trees>
        <_>
          <_>
            <feature>
              <rects>
                <_>
                  12 10 12 2 -1.</_>
                <_>
                  15 13 6 2 2.</_></rects>
              <tilted>1</tilted></feature>
            <threshold>0.0275083705782890</threshold>
            <left_val>-0.3888888955116272</left_val>
            <right_val>0.6621624231338501</right_val></_></_>
        <_>
          <_>
            <feature>
              <rects>
                <_>
                  14 0 3 23 -1.</_>
                <_>
                  15 0 1 23 3.</_></rects>
              <tilted>0</tilted></feature>
            <threshold>-0.0101844398304820</threshold>
            <left_val>-0.8914070725440979</left_val>
            <right_val>0.1386656016111374</right_val></_></_>
        <_>
          <_>
            <feature>
              <rects>
                <_>
                  11 0 13 4 -1.</_>
                <_>
                  11 0 13 2 2.</_></rects>
              <tilted>1</tilted></feature>
            <threshold>0.0356482602655888</threshold>
            <left_val>-0.3021200895309448</left_val>
            <right_val>0.6667237281799316</right_val></_></_>
        <_>
          <_>
            <feature>
              <rects>
                <_>
                  16 0 8 20 -1.</_>
                <_>
                  16 0 4 20 2.</_></rects>
              <tilted>0</tilted></feature>
            <threshold>0.0369616486132145</threshold>
            <left_val>-0.2365922033786774</left_val>
            <right_val>0.3318535089492798</right_val></_></_>
        <_>
          <_>
            <feature>
              <rects>
                <_>
                  5 15 3 4 -1.</_>
                <_>
                  5 15 3 2 2.</_></rects>
              <tilted>1</tilted></feature>
            <threshold>8.0441432073712349e-003</threshold>
            <left_val>-0.3421486020088196</left_val>
            <right_val>0.6723048090934753</right_val></_></_>
        <_>
          <_>
            <feature>
              <rects>
                <_>
                  14 0 3 23 -1.</_>
                <_>
                  15 0 1 23 3.</_></rects>
              <tilted>0</tilted></feature>
            <threshold>0.0182882603257895</threshold>
            <left_val>0.1311876028776169</left_val>
            <right_val>-1.</right_val></_></_>
        <_>
          <_>
            <feature>
              <rects>
                <_>
                  12 5 12 4 -1.</_>
                <_>
                  12 5 12 2 2.</_></rects>
              <tilted>1</tilted></feature>
            <threshold>2.5522669311612844e-003</threshold>
            <left_val>-0.5419818162918091</left_val>
            <right_val>0.3320094943046570</right_val></_></_>
        <_>
          <_>
            <feature>
              <rects>
                <_>
                  13 1 11 12 -1.</_>
                <_>
                  13 7 11 6 2.</_></rects>
              <tilted>0</tilted></feature>
            <threshold>0.0428891889750957</threshold>
            <left_val>-0.2579643130302429</left_val>
            <right_val>0.4785532057285309</right_val></_></_></trees>
      <stage_threshold>-1.0789439678192139</stage_threshold>
      <parent>0</parent>
      <next>-1</next></_>
    <_>
      <trees>
        <_>
          <_>
            <feature>
              <rects>
                <_>
                  2 6 20 14 -1.</_>
                <_>
                  12 6 10 14 2.</_></rects>
              <tilted>0</tilted></feature>
            <threshold>0.4022507965564728</threshold>
            <left_val>-0.2398754954338074</left_val>
            <right_val>0.9746838808059692</right_val></_></_>
        <_>
          <_>
            <feature>
              <rects>
                <_>
                  9 9 14 3 -1.</_>
                <_>
                  9 10 14 1 3.</_></rects>
              <tilted>0</tilted></feature>
            <threshold>5.1263691857457161e-003</threshold>
            <left_val>0.2096855044364929</left_val>
            <right_val>-0.7583360075950623</right_val></_></_>
        <_>
          <_>
            <feature>
              <rects>
                <_>
                  1 0 3 10 -1.</_>
                <_>
                  1 5 3 5 2.</_></rects>
              <tilted>0</tilted></feature>
            <threshold>4.6658897772431374e-003</threshold>
            <left_val>-0.3636319041252136</left_val>
            <right_val>0.5207012891769409</right_val></_></_>
        <_>
          <_>
            <feature>
              <rects>
                <_>
                  11 0 6 6 -1.</_>
                <_>
                  11 3 6 3 2.</_></rects>
              <tilted>0</tilted></feature>
            <threshold>-0.0123919202014804</threshold>
            <left_val>0.4905132055282593</left_val>
            <right_val>-0.2049508988857269</right_val></_></_>
        <_>
          <_>
            <feature>
              <rects>
                <_>
                  9 5 3 3 -1.</_>
                <_>
                  10 6 1 1 9.</_></rects>
              <tilted>0</tilted></feature>
            <threshold>2.4350560270249844e-003</threshold>
            <left_val>0.2761296033859253</left_val>
            <right_val>-0.8414456248283386</right_val></_></_>
        <_>
          <_>
            <feature>
              <rects>
                <_>
                  8 0 10 4 -1.</_>
                <_>
                  13 0 5 2 2.</_>
                <_>
                  8 2 5 2 2.</_></rects>
              <tilted>0</tilted></feature>
            <threshold>-3.3940731082111597e-003</threshold>
            <left_val>0.4141592979431152</left_val>
            <right_val>-0.3353619873523712</right_val></_></_>
        <_>
          <_>
            <feature>
              <rects>
                <_>
                  2 6 20 3 -1.</_>
                <_>
                  2 7 20 1 3.</_></rects>
              <tilted>0</tilted></feature>
            <threshold>7.4405088089406490e-003</threshold>
            <left_val>0.2368420064449310</left_val>
            <right_val>-0.8709865212440491</right_val></_></_>
        <_>
          <_>
            <feature>
              <rects>
                <_>
                  18 2 6 16 -1.</_>
                <_>
                  21 2 3 8 2.</_>
                <_>
                  18 10 3 8 2.</_></rects>
              <tilted>0</tilted></feature>
            <threshold>0.0230889394879341</threshold>
            <left_val>-0.2290599048137665</left_val>
            <right_val>0.5750592947006226</right_val></_></_>
        <_>
          <_>
            <feature>
              <rects>
                <_>
                  9 8 4 6 -1.</_>
                <_>
                  9 8 2 3 2.</_>
                <_>
                  11 11 2 3 2.</_></rects>
              <tilted>0</tilted></feature>
            <threshold>-1.4601150178350508e-004</threshold>
            <left_val>0.5073022246360779</left_val>
            <right_val>-0.3613120019435883</right_val></_></_></trees>
      <stage_threshold>-1.0115350484848022</stage_threshold>
      <parent>1</parent>
      <next>-1</next></_>
    <_>
      <trees>
        <_>
          <_>
            <feature>
              <rects>
                <_>
                  4 1 16 4 -1.</_>
                <_>
                  4 1 8 2 2.</_>
                <_>
                  12 3 8 2 2.</_></rects>
              <tilted>0</tilted></feature>
            <threshold>3.0347870197147131e-003</threshold>
            <left_val>-0.3973799943923950</left_val>
            <right_val>0.5321639180183411</right_val></_></_>
        <_>
          <_>
            <feature>
              <rects>
                <_>
                  3 22 18 2 -1.</_>
                <_>
                  3 23 18 1 2.</_></rects>
              <tilted>0</tilted></feature>
            <threshold>-2.0684439223259687e-003</threshold>
            <left_val>0.4292671978473663</left_val>
            <right_val>-0.4067139923572540</right_val></_></_>
        <_>
          <_>
            <feature>
              <rects>
                <_>
                  4 0 1 10 -1.</_>
                <_>
                  4 5 1 5 2.</_></rects>
              <tilted>0</tilted></feature>
            <threshold>3.1132770236581564e-003</threshold>
            <left_val>-0.3253171145915985</left_val>
            <right_val>0.5308597087860107</right_val></_></_>
        <_>
          <_>
            <feature>
              <rects>
                <_>
                  15 6 6 2 -1.</_>
                <_>
                  15 7 6 1 2.</_></rects>
              <tilted>0</tilted></feature>
            <threshold>-1.3419889728538692e-004</threshold>
            <left_val>0.3146680891513825</left_val>
            <right_val>-0.2583380937576294</right_val></_></_>
        <_>
          <_>
            <feature>
              <rects>
                <_>
                  11 3 10 5 -1.</_>
                <_>
                  11 3 5 5 2.</_></rects>
              <tilted>1</tilted></feature>
            <threshold>-0.0589831396937370</threshold>
            <left_val>0.5111076235771179</left_val>
            <right_val>-0.3572083115577698</right_val></_></_>
        <_>
          <_>
            <feature>
              <rects>
                <_>
                  15 1 6 1 -1.</_>
                <_>
                  17 3 2 1 3.</_></rects>
              <tilted>1</tilted></feature>
            <threshold>3.9568832144141197e-003</threshold>
            <left_val>0.2031071931123734</left_val>
            <right_val>-0.4973605871200562</right_val></_></_>
        <_>
          <_>
            <feature>
              <rects>
                <_>
                  2 0 20 5 -1.</_>
                <_>
                  7 0 10 5 2.</_></rects>
              <tilted>0</tilted></feature>
            <threshold>0.0609695985913277</threshold>
            <left_val>-0.3063448965549469</left_val>
            <right_val>0.7479587793350220</right_val></_></_>
        <_>
          <_>
            <feature>
              <rects>
                <_>
                  17 2 3 2 -1.</_>
                <_>
                  18 3 1 2 3.</_></rects>
              <tilted>1</tilted></feature>
            <threshold>4.0882430039346218e-003</threshold>
            <left_val>0.1537947058677673</left_val>
            <right_val>-1.0000029802322388</right_val></_></_>
        <_>
          <_>
            <feature>
              <rects>
                <_>
                  5 1 4 2 -1.</_>
                <_>
                  7 1 2 2 2.</_></rects>
              <tilted>0</tilted></feature>
            <threshold>-5.5351632181555033e-004</threshold>
            <left_val>0.5733352899551392</left_val>
            <right_val>-0.3893556892871857</right_val></_></_></trees>
      <stage_threshold>-0.6747688055038452</stage_threshold>
      <parent>2</parent>
      <next>-1</next></_>
    <_>
      <trees>
        <_>
          <_>
            <feature>
              <rects>
                <_>
                  11 0 13 8 -1.</_>
                <_>
                  11 0 13 4 2.</_></rects>
              <tilted>1</tilted></feature>
            <threshold>0.1256933063268662</threshold>
            <left_val>-0.3098591864109039</left_val>
            <right_val>0.7586209177970886</right_val></_></_>
        <_>
          <_>
            <feature>
              <rects>
                <_>
                  8 9 16 12 -1.</_>
                <_>
                  16 9 8 6 2.</_>
                <_>
                  8 15 8 6 2.</_></rects>
              <tilted>0</tilted></feature>
            <threshold>0.0146044902503490</threshold>
            <left_val>-0.2274132966995239</left_val>
            <right_val>0.2666741013526917</right_val></_></_>
        <_>
          <_>
            <feature>
              <rects>
                <_>
                  0 14 4 10 -1.</_>
                <_>
                  0 14 2 5 2.</_>
                <_>
                  2 19 2 5 2.</_></rects>
              <tilted>0</tilted></feature>
            <threshold>-4.9036690033972263e-003</threshold>
            <left_val>0.5593376159667969</left_val>
            <right_val>-0.3099454939365387</right_val></_></_>
        <_>
          <_>
            <feature>
              <rects>
                <_>
                  12 11 2 6 -1.</_>
                <_>
                  10 13 2 2 3.</_></rects>
              <tilted>1</tilted></feature>
            <threshold>0.0118212001398206</threshold>
            <left_val>0.0958869010210037</left_val>
            <right_val>-0.5703408122062683</right_val></_></_>
        <_>
          <_>
            <feature>
              <rects>
                <_>
                  10 3 3 11 -1.</_>
                <_>
                  11 3 1 11 3.</_></rects>
              <tilted>0</tilted></feature>
            <threshold>-5.3947261767461896e-004</threshold>
            <left_val>-0.4621928036212921</left_val>
            <right_val>0.3603523969650269</right_val></_></_>
        <_>
          <_>
            <feature>
              <rects>
                <_>
                  15 2 4 6 -1.</_>
                <_>
                  15 5 4 3 2.</_></rects>
              <tilted>0</tilted></feature>
            <threshold>-1.9508199766278267e-003</threshold>
            <left_val>0.2922588884830475</left_val>
            <right_val>-0.2205424010753632</right_val></_></_>
        <_>
          <_>
            <feature>
              <rects>
                <_>
                  4 20 4 4 -1.</_>
                <_>
                  4 20 2 2 2.</_>
                <_>
                  6 22 2 2 2.</_></rects>
              <tilted>0</tilted></feature>
            <threshold>-3.0907290056347847e-003</threshold>
            <left_val>0.6329541802406311</left_val>
            <right_val>-0.2675074934959412</right_val></_></_>
        <_>
          <_>
            <feature>
              <rects>
                <_>
                  4 12 18 6 -1.</_>
                <_>
                  13 12 9 3 2.</_>
                <_>
                  4 15 9 3 2.</_></rects>
              <tilted>0</tilted></feature>
            <threshold>5.0778831355273724e-003</threshold>
            <left_val>0.3214611113071442</left_val>
            <right_val>-0.3164012134075165</right_val></_></_>
        <_>
          <_>
            <feature>
              <rects>
                <_>
                  12 4 9 2 -1.</_>
                <_>
                  12 4 9 1 2.</_></rects>
              <tilted>1</tilted></feature>
            <threshold>2.5746501050889492e-003</threshold>
            <left_val>-0.4295215010643005</left_val>
            <right_val>0.3696661889553070</right_val></_></_>
        <_>
          <_>
            <feature>
              <rects>
                <_>
                  8 0 12 11 -1.</_>
                <_>
                  12 0 4 11 3.</_></rects>
              <tilted>0</tilted></feature>
            <threshold>-0.0350407697260380</threshold>
            <left_val>-0.6608660221099854</left_val>
            <right_val>0.1139504984021187</right_val></_></_>
        <_>
          <_>
            <feature>
              <rects>
                <_>
                  4 0 12 11 -1.</_>
                <_>
                  8 0 4 11 3.</_></rects>
              <tilted>0</tilted></feature>
            <threshold>-0.1006615012884140</threshold>
            <left_val>-1.</left_val>
            <right_val>0.1788946986198425</right_val></_></_>
        <_>
          <_>
            <feature>
              <rects>
                <_>
                  8 6 16 12 -1.</_>
                <_>
                  16 6 8 6 2.</_>
                <_>
                  8 12 8 6 2.</_></rects>
              <tilted>0</tilted></feature>
            <threshold>0.0361870005726814</threshold>
            <left_val>-0.1533571034669876</left_val>
            <right_val>0.1440792977809906</right_val></_></_>
        <_>
          <_>
            <feature>
              <rects>
                <_>
                  2 9 1 8 -1.</_>
                <_>
                  2 13 1 4 2.</_></rects>
              <tilted>0</tilted></feature>
            <threshold>-2.4086730554699898e-003</threshold>
            <left_val>0.6224737763404846</left_val>
            <right_val>-0.2615267038345337</right_val></_></_>
        <_>
          <_>
            <feature>
              <rects>
                <_>
                  12 5 2 6 -1.</_>
                <_>
                  12 5 2 3 2.</_></rects>
              <tilted>1</tilted></feature>
            <threshold>-9.6193859353661537e-003</threshold>
            <left_val>0.4874412119388580</left_val>
            <right_val>-0.2079827040433884</right_val></_></_></trees>
      <stage_threshold>-0.7278782129287720</stage_threshold>
      <parent>3</parent>
      <next>-1</next></_>
    <_>
      <trees>
        <_>
          <_>
            <feature>
              <rects>
                <_>
                  1 12 22 6 -1.</_>
                <_>
                  12 12 11 6 2.</_></rects>
              <tilted>0</tilted></feature>
            <threshold>0.2282474040985107</threshold>
            <left_val>-0.1891892999410629</left_val>
            <right_val>0.9402989745140076</right_val></_></_>
        <_>
          <_>
            <feature>
              <rects>
                <_>
                  13 11 6 3 -1.</_>
                <_>
                  15 12 2 1 9.</_></rects>
              <tilted>0</tilted></feature>
            <threshold>0.0113673498854041</threshold>
            <left_val>0.1088164970278740</left_val>
            <right_val>-0.5743638873100281</right_val></_></_>
        <_>
          <_>
            <feature>
              <rects>
                <_>
                  1 23 22 1 -1.</_>
                <_>
                  12 23 11 1 2.</_></rects>
              <tilted>0</tilted></feature>
            <threshold>9.7532290965318680e-003</threshold>
            <left_val>0.2737216949462891</left_val>
            <right_val>-0.5559601187705994</right_val></_></_>
        <_>
          <_>
            <feature>
              <rects>
                <_>
                  12 0 2 11 -1.</_>
                <_>
                  12 0 1 11 2.</_></rects>
              <tilted>1</tilted></feature>
            <threshold>6.6715599969029427e-003</threshold>
            <left_val>-0.1378968954086304</left_val>
            <right_val>0.2464430928230286</right_val></_></_>
        <_>
          <_>
            <feature>
              <rects>
                <_>
                  9 0 6 10 -1.</_>
                <_>
                  11 0 2 10 3.</_></rects>
              <tilted>0</tilted></feature>
            <threshold>8.5846139118075371e-003</threshold>
            <left_val>0.1992187052965164</left_val>
            <right_val>-0.7445545196533203</right_val></_></_>
        <_>
          <_>
            <feature>
              <rects>
                <_>
                  15 3 6 12 -1.</_>
                <_>
                  17 7 2 4 9.</_></rects>
              <tilted>0</tilted></feature>
            <threshold>0.0378418192267418</threshold>
            <left_val>0.0750555470585823</left_val>
            <right_val>-0.2819026112556458</right_val></_></_>
        <_>
          <_>
            <feature>
              <rects>
                <_>
                  5 11 6 3 -1.</_>
                <_>
                  7 12 2 1 9.</_></rects>
              <tilted>0</tilted></feature>
            <threshold>5.3056720644235611e-003</threshold>
            <left_val>0.2003756016492844</left_val>
            <right_val>-0.7541013956069946</right_val></_></_>
        <_>
          <_>
            <feature>
              <rects>
                <_>
                  13 4 4 12 -1.</_>
                <_>
                  10 7 4 6 2.</_></rects>
              <tilted>1</tilted></feature>
            <threshold>-0.0682425796985626</threshold>
            <left_val>-0.7209011912345886</left_val>
            <right_val>0.0249403491616249</right_val></_></_>
        <_>
          <_>
            <feature>
              <rects>
                <_>
                  11 4 12 4 -1.</_>
                <_>
                  14 7 6 4 2.</_></rects>
              <tilted>1</tilted></feature>
            <threshold>-0.0238531492650509</threshold>
            <left_val>0.6808822154998779</left_val>
            <right_val>-0.2266103029251099</right_val></_></_>
        <_>
          <_>
            <feature>
              <rects>
                <_>
                  13 2 3 20 -1.</_>
                <_>
                  14 2 1 20 3.</_></rects>
              <tilted>0</tilted></feature>
            <threshold>9.5628909766674042e-003</threshold>
            <left_val>0.1181930005550385</left_val>
            <right_val>-0.9051653146743774</right_val></_></_>
        <_>
          <_>
            <feature>
              <rects>
                <_>
                  10 6 4 3 -1.</_>
                <_>
                  10 7 4 1 3.</_></rects>
              <tilted>0</tilted></feature>
            <threshold>-1.6430979594588280e-003</threshold>
            <left_val>-0.8080496788024902</left_val>
            <right_val>0.1653296947479248</right_val></_></_></trees>
      <stage_threshold>-1.0257029533386230</stage_threshold>
      <parent>4</parent>
      <next>-1</next></_>
    <_>
      <trees>
        <_>
          <_>
            <feature>
              <rects>
                <_>
                  0 11 20 12 -1.</_>
                <_>
                  10 11 10 12 2.</_></rects>
              <tilted>0</tilted></feature>
            <threshold>0.1607502996921539</threshold>
            <left_val>-0.3684211075305939</left_val>
            <right_val>0.7313435077667236</right_val></_></_>
        <_>
          <_>
            <feature>
              <rects>
                <_>
                  18 10 2 4 -1.</_>
                <_>
                  18 11 2 2 2.</_></rects>
              <tilted>0</tilted></feature>
            <threshold>1.7945090075954795e-003</threshold>
            <left_val>0.1833568960428238</left_val>
            <right_val>-0.7722834944725037</right_val></_></_>
        <_>
          <_>
            <feature>
              <rects>
                <_>
                  1 0 18 4 -1.</_>
                <_>
                  1 2 18 2 2.</_></rects>
              <tilted>0</tilted></feature>
            <threshold>6.8820938467979431e-003</threshold>
            <left_val>-0.3128424882888794</left_val>
            <right_val>0.6391414999961853</right_val></_></_>
        <_>
          <_>
            <feature>
              <rects>
                <_>
                  17 14 2 3 -1.</_>
                <_>
                  17 15 2 1 3.</_></rects>
              <tilted>0</tilted></feature>
            <threshold>2.5251898914575577e-003</threshold>
            <left_val>0.0477880612015724</left_val>
            <right_val>-0.8165990710258484</right_val></_></_>
        <_>
          <_>
            <feature>
              <rects>
                <_>
                  8 8 4 3 -1.</_>
                <_>
                  7 9 4 1 3.</_></rects>
              <tilted>1</tilted></feature>
            <threshold>-2.1273819729685783e-003</threshold>
            <left_val>-0.6631659865379334</left_val>
            <right_val>0.3054862022399902</right_val></_></_>
        <_>
          <_>
            <feature>
              <rects>
                <_>
                  18 10 3 4 -1.</_>
                <_>
                  18 11 3 2 2.</_></rects>
              <tilted>0</tilted></feature>
            <threshold>-2.9975569341331720e-003</threshold>
            <left_val>-0.6268538832664490</left_val>
            <right_val>0.0313843302428722</right_val></_></_>
        <_>
          <_>
            <feature>
              <rects>
                <_>
                  9 4 3 9 -1.</_>
                <_>
                  10 4 1 9 3.</_></rects>
              <tilted>0</tilted></feature>
            <threshold>-2.5159521028399467e-003</threshold>
            <left_val>-0.9292891025543213</left_val>
            <right_val>0.2124211043119431</right_val></_></_>
        <_>
          <_>
            <feature>
              <rects>
                <_>
                  18 10 2 4 -1.</_>
                <_>
                  18 11 2 2 2.</_></rects>
              <tilted>0</tilted></feature>
            <threshold>7.2842172812670469e-004</threshold>
            <left_val>0.0566508397459984</left_val>
            <right_val>-0.3695552945137024</right_val></_></_>
        <_>
          <_>
            <feature>
              <rects>
                <_>
                  4 10 2 4 -1.</_>
                <_>
                  4 11 2 2 2.</_></rects>
              <tilted>0</tilted></feature>
            <threshold>-7.0843921275809407e-004</threshold>
            <left_val>-0.7622876763343811</left_val>
            <right_val>0.3229635953903198</right_val></_></_></trees>
      <stage_threshold>-0.7719469070434570</stage_threshold>
      <parent>5</parent>
      <next>-1</next></_>
    <_>
      <trees>
        <_>
          <_>
            <feature>
              <rects>
                <_>
                  1 3 20 18 -1.</_>
                <_>
                  6 3 10 18 2.</_></rects>
              <tilted>0</tilted></feature>
            <threshold>-0.0791809409856796</threshold>
            <left_val>0.7460318207740784</left_val>
            <right_val>-0.3430657982826233</right_val></_></_>
        <_>
          <_>
            <feature>
              <rects>
                <_>
                  0 0 24 24 -1.</_>
                <_>
                  6 0 12 24 2.</_></rects>
              <tilted>0</tilted></feature>
            <threshold>0.1042203009128571</threshold>
            <left_val>-0.3817177116870880</left_val>
            <right_val>0.6717389225959778</right_val></_></_>
        <_>
          <_>
            <feature>
              <rects>
                <_>
                  3 10 11 3 -1.</_>
                <_>
                  3 11 11 1 3.</_></rects>
              <tilted>0</tilted></feature>
            <threshold>2.5601550005376339e-003</threshold>
            <left_val>0.2785974144935608</left_val>
            <right_val>-0.7300919890403748</right_val></_></_>
        <_>
          <_>
            <feature>
              <rects>
                <_>
                  16 1 7 4 -1.</_>
                <_>
                  16 3 7 2 2.</_></rects>
              <tilted>0</tilted></feature>
            <threshold>9.5707140862941742e-003</threshold>
            <left_val>-0.2583616971969605</left_val>
            <right_val>0.4726077020168304</right_val></_></_>
        <_>
          <_>
            <feature>
              <rects>
                <_>
                  0 19 2 3 -1.</_>
                <_>
                  0 20 2 1 3.</_></rects>
              <tilted>0</tilted></feature>
            <threshold>-7.1007182123139501e-004</threshold>
            <left_val>-0.6426950097084045</left_val>
            <right_val>0.3446286022663117</right_val></_></_></trees>
      <stage_threshold>-0.3599191009998322</stage_threshold>
      <parent>6</parent>
      <next>-1</next></_>
    <_>
      <trees>
        <_>
          <_>
            <feature>
              <rects>
                <_>
                  9 3 6 1 -1.</_>
                <_>
                  12 3 3 1 2.</_></rects>
              <tilted>0</tilted></feature>
            <threshold>2.5395250413566828e-003</threshold>
            <left_val>-0.3189964890480042</left_val>
            <right_val>0.7355374097824097</right_val></_></_>
        <_>
          <_>
            <feature>
              <rects>
                <_>
                  13 14 8 3 -1.</_>
                <_>
                  13 15 8 1 3.</_></rects>
              <tilted>0</tilted></feature>
            <threshold>-4.2370972223579884e-003</threshold>
            <left_val>-0.6644483208656311</left_val>
            <right_val>0.1490332931280136</right_val></_></_>
        <_>
          <_>
            <feature>
              <rects>
                <_>
                  0 0 12 13 -1.</_>
                <_>
                  4 0 4 13 3.</_></rects>
              <tilted>0</tilted></feature>
            <threshold>0.0420430004596710</threshold>
            <left_val>-0.2038573026657105</left_val>
            <right_val>0.7995368838310242</right_val></_></_>
        <_>
          <_>
            <feature>
              <rects>
                <_>
                  12 6 2 6 -1.</_>
                <_>
                  12 6 2 3 2.</_></rects>
              <tilted>1</tilted></feature>
            <threshold>0.0263998191803694</threshold>
            <left_val>0.0895790681242943</left_val>
            <right_val>-0.7326741814613342</right_val></_></_>
        <_>
          <_>
            <feature>
              <rects>
                <_>
                  9 7 8 3 -1.</_>
                <_>
                  9 7 4 3 2.</_></rects>
              <tilted>1</tilted></feature>
            <threshold>-0.0119259599596262</threshold>
            <left_val>0.5014343857765198</left_val>
            <right_val>-0.4366404116153717</right_val></_></_>
        <_>
          <_>
            <feature>
              <rects>
                <_>
                  2 15 20 2 -1.</_>
                <_>
                  7 15 10 2 2.</_></rects>
              <tilted>0</tilted></feature>
            <threshold>-6.3021518290042877e-003</threshold>
            <left_val>0.5458356738090515</left_val>
            <right_val>-0.3589141964912415</right_val></_></_>
        <_>
          <_>
            <feature>
              <rects>
                <_>
                  0 3 20 21 -1.</_>
                <_>
                  5 3 10 21 2.</_></rects>
              <tilted>0</tilted></feature>
            <threshold>0.1084577962756157</threshold>
            <left_val>-0.3277462124824524</left_val>
            <right_val>0.6248735189437866</right_val></_></_></trees>
      <stage_threshold>-1.2176300287246704</stage_threshold>
      <parent>7</parent>
      <next>-1</next></_>
    <_>
      <trees>
        <_>
          <_>
            <feature>
              <rects>
                <_>
                  12 11 12 1 -1.</_>
                <_>
                  16 15 4 1 3.</_></rects>
              <tilted>1</tilted></feature>
            <threshold>0.0170903895050287</threshold>
            <left_val>-0.3443984091281891</left_val>
            <right_val>0.5220128297805786</right_val></_></_>
        <_>
          <_>
            <feature>
              <rects>
                <_>
                  9 14 14 4 -1.</_>
                <_>
                  16 14 7 2 2.</_>
                <_>
                  9 16 7 2 2.</_></rects>
              <tilted>0</tilted></feature>
            <threshold>2.2112950682640076e-003</threshold>
            <left_val>-0.2178042978048325</left_val>
            <right_val>0.2356881946325302</right_val></_></_>
        <_>
          <_>
            <feature>
              <rects>
                <_>
                  2 7 5 3 -1.</_>
                <_>
                  2 8 5 1 3.</_></rects>
              <tilted>0</tilted></feature>
            <threshold>1.8600639887154102e-003</threshold>
            <left_val>0.1858737021684647</left_val>
            <right_val>-0.8447920083999634</right_val></_></_>
        <_>
          <_>
            <feature>
              <rects>
                <_>
                  13 7 7 3 -1.</_>
                <_>
                  13 8 7 1 3.</_></rects>
              <tilted>0</tilted></feature>
            <threshold>-1.4884299598634243e-003</threshold>
            <left_val>-0.5403664708137512</left_val>
            <right_val>0.1407348960638046</right_val></_></_>
        <_>
          <_>
            <feature>
              <rects>
                <_>
                  6 14 12 8 -1.</_>
                <_>
                  6 14 6 4 2.</_>
                <_>
                  12 18 6 4 2.</_></rects>
              <tilted>0</tilted></feature>
            <threshold>-0.0213703606277704</threshold>
            <left_val>-0.7088171839714050</left_val>
            <right_val>0.2166057974100113</right_val></_></_>
        <_>
          <_>
            <feature>
              <rects>
                <_>
                  5 0 14 2 -1.</_>
                <_>
                  5 1 14 1 2.</_></rects>
              <tilted>0</tilted></feature>
            <threshold>3.1360099092125893e-003</threshold>
            <left_val>-0.3276756107807159</left_val>
            <right_val>0.5790023207664490</right_val></_></_>
        <_>
          <_>
            <feature>
              <rects>
                <_>
                  4 7 2 1 -1.</_>
                <_>
                  5 7 1 1 2.</_></rects>
              <tilted>0</tilted></feature>
            <threshold>-5.7377841585548595e-005</threshold>
            <left_val>0.4743979871273041</left_val>
            <right_val>-0.3567124903202057</right_val></_></_>
        <_>
          <_>
            <feature>
              <rects>
                <_>
                  14 5 5 3 -1.</_>
                <_>
                  14 6 5 1 3.</_></rects>
              <tilted>0</tilted></feature>
            <threshold>-1.9502689610817470e-005</threshold>
            <left_val>0.2710433006286621</left_val>
            <right_val>-0.1863362044095993</right_val></_></_>
        <_>
          <_>
            <feature>
              <rects>
                <_>
                  5 5 5 3 -1.</_>
                <_>
                  5 6 5 1 3.</_></rects>
              <tilted>0</tilted></feature>
            <threshold>-2.6425309479236603e-003</threshold>
            <left_val>-0.8707984089851379</left_val>
            <right_val>0.2007315009832382</right_val></_></_>
        <_>
          <_>
            <feature>
              <rects>
                <_>
                  4 4 20 14 -1.</_>
                <_>
                  9 4 10 14 2.</_></rects>
              <tilted>0</tilted></feature>
            <threshold>0.0633247569203377</threshold>
            <left_val>-0.2564699053764343</left_val>
            <right_val>0.3033376932144165</right_val></_></_>
        <_>
          <_>
            <feature>
              <rects>
                <_>
                  0 14 18 4 -1.</_>
                <_>
                  0 14 9 2 2.</_>
                <_>
                  9 16 9 2 2.</_></rects>
              <tilted>0</tilted></feature>
            <threshold>5.7564978487789631e-004</threshold>
            <left_val>-0.4323610067367554</left_val>
            <right_val>0.3798651993274689</right_val></_></_>
        <_>
          <_>
            <feature>
              <rects>
                <_>
                  15 5 3 2 -1.</_>
                <_>
                  16 6 1 2 3.</_></rects>
              <tilted>1</tilted></feature>
            <threshold>-2.8559719212353230e-003</threshold>
            <left_val>-0.6621673703193665</left_val>
            <right_val>0.0828359872102737</right_val></_></_>
        <_>
          <_>
            <feature>
              <rects>
                <_>
                  1 12 2 10 -1.</_>
                <_>
                  2 12 1 10 2.</_></rects>
              <tilted>0</tilted></feature>
            <threshold>2.3291920660994947e-004</threshold>
            <left_val>-0.4674176871776581</left_val>
            <right_val>0.3825233876705170</right_val></_></_></trees>
      <stage_threshold>-1.2025860548019409</stage_threshold>
      <parent>8</parent>
      <next>-1</next></_>
    <_>
      <trees>
        <_>
          <_>
            <feature>
              <rects>
                <_>
                  3 0 18 22 -1.</_>
                <_>
                  12 0 9 22 2.</_></rects>
              <tilted>0</tilted></feature>
            <threshold>0.3563070893287659</threshold>
            <left_val>-0.2733564972877502</left_val>
            <right_val>0.7117120027542114</right_val></_></_>
        <_>
          <_>
            <feature>
              <rects>
                <_>
                  16 7 3 8 -1.</_>
                <_>
                  17 7 1 8 3.</_></rects>
              <tilted>0</tilted></feature>
            <threshold>6.0626608319580555e-003</threshold>
            <left_val>0.0733714178204536</left_val>
            <right_val>-0.6064031124114990</right_val></_></_>
        <_>
          <_>
            <feature>
              <rects>
                <_>
                  5 7 3 8 -1.</_>
                <_>
                  6 7 1 8 3.</_></rects>
              <tilted>0</tilted></feature>
            <threshold>2.2058018948882818e-003</threshold>
            <left_val>0.1959058940410614</left_val>
            <right_val>-0.8272979259490967</right_val></_></_>
        <_>
          <_>
            <feature>
              <rects>
                <_>
                  1 10 22 14 -1.</_>
                <_>
                  1 17 22 7 2.</_></rects>
              <tilted>0</tilted></feature>
            <threshold>-0.0196971707046032</threshold>
            <left_val>0.2521257102489471</left_val>
            <right_val>-0.5041245222091675</right_val></_></_>
        <_>
          <_>
            <feature>
              <rects>
                <_>
                  8 7 4 16 -1.</_>
                <_>
                  8 7 2 8 2.</_>
                <_>
                  10 15 2 8 2.</_></rects>
              <tilted>0</tilted></feature>
            <threshold>-0.0104411598294973</threshold>
            <left_val>-0.8038923144340515</left_val>
            <right_val>0.2010757029056549</right_val></_></_>
        <_>
          <_>
            <feature>
              <rects>
                <_>
                  4 11 18 6 -1.</_>
                <_>
                  13 11 9 3 2.</_>
                <_>
                  4 14 9 3 2.</_></rects>
              <tilted>0</tilted></feature>
            <threshold>-0.0150875803083181</threshold>
            <left_val>-0.4486978948116303</left_val>
            <right_val>0.0980779007077217</right_val></_></_>
        <_>
          <_>
            <feature>
              <rects>
                <_>
                  11 10 9 2 -1.</_>
                <_>
                  14 13 3 2 3.</_></rects>
              <tilted>1</tilted></feature>
            <threshold>-3.8131629116833210e-004</threshold>
            <left_val>0.4072763919830322</left_val>
            <right_val>-0.3612836003303528</right_val></_></_>
        <_>
          <_>
            <feature>
              <rects>
                <_>
                  8 3 8 6 -1.</_>
                <_>
                  12 3 4 3 2.</_>
                <_>
                  8 6 4 3 2.</_></rects>
              <tilted>0</tilted></feature>
            <threshold>-6.0271420516073704e-003</threshold>
            <left_val>-0.7314695715904236</left_val>
            <right_val>0.2123665064573288</right_val></_></_>
        <_>
          <_>
            <feature>
              <rects>
                <_>
                  4 20 2 4 -1.</_>
                <_>
                  4 20 1 2 2.</_>
                <_>
                  5 22 1 2 2.</_></rects>
              <tilted>0</tilted></feature>
            <threshold>-1.0716640390455723e-003</threshold>
            <left_val>0.5420668125152588</left_val>
            <right_val>-0.2697187960147858</right_val></_></_>
        <_>
          <_>
            <feature>
              <rects>
                <_>
                  13 1 3 23 -1.</_>
                <_>
                  14 1 1 23 3.</_></rects>
              <tilted>0</tilted></feature>
            <threshold>1.8813980277627707e-003</threshold>
            <left_val>0.2012975066900253</left_val>
            <right_val>-0.3154678940773010</right_val></_></_></trees>
      <stage_threshold>-0.9431536793708801</stage_threshold>
      <parent>9</parent>
      <next>-1</next></_>
    <_>
      <trees>
        <_>
          <_>
            <feature>
              <rects>
                <_>
                  12 1 10 6 -1.</_>
                <_>
                  12 1 10 3 2.</_></rects>
              <tilted>1</tilted></feature>
            <threshold>0.0755447670817375</threshold>
            <left_val>-0.2597864866256714</left_val>
            <right_val>0.6134455800056458</right_val></_></_>
        <_>
          <_>
            <feature>
              <rects>
                <_>
                  3 22 20 2 -1.</_>
                <_>
                  3 23 20 1 2.</_></rects>
              <tilted>0</tilted></feature>
            <threshold>-3.5943619441241026e-003</threshold>
            <left_val>0.3834865093231201</left_val>
            <right_val>-0.2829489111900330</right_val></_></_>
        <_>
          <_>
            <feature>
              <rects>
                <_>
                  9 4 6 6 -1.</_>
                <_>
                  9 4 3 3 2.</_>
                <_>
                  12 7 3 3 2.</_></rects>
              <tilted>0</tilted></feature>
            <threshold>-9.3699190765619278e-003</threshold>
            <left_val>-1.</left_val>
            <right_val>0.1203346997499466</right_val></_></_>
        <_>
          <_>
            <feature>
              <rects>
                <_>
                  7 9 10 12 -1.</_>
                <_>
                  12 9 5 6 2.</_>
                <_>
                  7 15 5 6 2.</_></rects>
              <tilted>0</tilted></feature>
            <threshold>0.0223292708396912</threshold>
            <left_val>0.1178131997585297</left_val>
            <right_val>-0.8446683287620544</right_val></_></_>
        <_>
          <_>
            <feature>
              <rects>
                <_>
                  0 8 21 4 -1.</_>
                <_>
                  0 9 21 2 2.</_></rects>
              <tilted>0</tilted></feature>
            <threshold>7.7020511962473392e-003</threshold>
            <left_val>0.1083165034651756</left_val>
            <right_val>-0.9476721286773682</right_val></_></_>
        <_>
          <_>
            <feature>
              <rects>
                <_>
                  12 6 1 4 -1.</_>
                <_>
                  12 6 1 2 2.</_></rects>
              <tilted>1</tilted></feature>
            <threshold>-1.7165290191769600e-003</threshold>
            <left_val>0.2276079952716827</left_val>
            <right_val>-0.1562446951866150</right_val></_></_>
        <_>
          <_>
            <feature>
              <rects>
                <_>
                  2 0 18 4 -1.</_>
                <_>
                  2 0 9 2 2.</_>
                <_>
                  11 2 9 2 2.</_></rects>
              <tilted>0</tilted></feature>
            <threshold>3.8196840323507786e-003</threshold>
            <left_val>-0.2497317045927048</left_val>
            <right_val>0.4459846019744873</right_val></_></_>
        <_>
          <_>
            <feature>
              <rects>
                <_>
                  20 2 2 10 -1.</_>
                <_>
                  21 2 1 5 2.</_>
                <_>
                  20 7 1 5 2.</_></rects>
              <tilted>0</tilted></feature>
            <threshold>-2.0154740195721388e-003</threshold>
            <left_val>0.3920147120952606</left_val>
            <right_val>-0.3384551107883453</right_val></_></_>
        <_>
          <_>
            <feature>
              <rects>
                <_>
                  0 3 20 16 -1.</_>
                <_>
                  5 3 10 16 2.</_></rects>
              <tilted>0</tilted></feature>
            <threshold>0.1028836965560913</threshold>
            <left_val>-0.2305981963872910</left_val>
            <right_val>0.6210830807685852</right_val></_></_>
        <_>
          <_>
            <feature>
              <rects>
                <_>
                  8 5 12 4 -1.</_>
                <_>
                  12 5 4 4 3.</_></rects>
              <tilted>0</tilted></feature>
            <threshold>-0.0536683388054371</threshold>
            <left_val>-1.</left_val>
            <right_val>0.0554092302918434</right_val></_></_>
        <_>
          <_>
            <feature>
              <rects>
                <_>
                  4 5 12 4 -1.</_>
                <_>
                  8 5 4 4 3.</_></rects>
              <tilted>0</tilted></feature>
            <threshold>-3.7452310789376497e-003</threshold>
            <left_val>0.3794736862182617</left_val>
            <right_val>-0.4203073084354401</right_val></_></_></trees>
      <stage_threshold>-0.8404825925827026</stage_threshold>
      <parent>10</parent>
      <next>-1</next></_>
    <_>
      <trees>
        <_>
          <_>
            <feature>
              <rects>
                <_>
                  5 0 3 6 -1.</_>
                <_>
                  5 2 3 2 3.</_></rects>
              <tilted>0</tilted></feature>
            <threshold>5.7847080752253532e-003</threshold>
            <left_val>-0.2272727936506271</left_val>
            <right_val>0.7608699202537537</right_val></_></_>
        <_>
          <_>
            <feature>
              <rects>
                <_>
                  16 20 4 4 -1.</_>
                <_>
                  18 20 2 2 2.</_>
                <_>
                  16 22 2 2 2.</_></rects>
              <tilted>0</tilted></feature>
            <threshold>-3.7238369695842266e-003</threshold>
            <left_val>0.9025378227233887</left_val>
            <right_val>-0.1551924049854279</right_val></_></_>
        <_>
          <_>
            <feature>
              <rects>
                <_>
                  7 22 2 2 -1.</_>
                <_>
                  7 22 1 1 2.</_>
                <_>
                  8 23 1 1 2.</_></rects>
              <tilted>0</tilted></feature>
            <threshold>2.7855319785885513e-004</threshold>
            <left_val>-0.1682302951812744</left_val>
            <right_val>0.6659319996833801</right_val></_></_>
        <_>
          <_>
            <feature>
              <rects>
                <_>
                  0 15 24 4 -1.</_>
                <_>
                  12 15 12 2 2.</_>
                <_>
                  0 17 12 2 2.</_></rects>
              <tilted>0</tilted></feature>
            <threshold>2.6733560953289270e-003</threshold>
            <left_val>-0.3506889939308167</left_val>
            <right_val>0.3954823017120361</right_val></_></_>
        <_>
          <_>
            <feature>
              <rects>
                <_>
                  2 2 4 4 -1.</_>
                <_>
                  2 2 2 2 2.</_>
                <_>
                  4 4 2 2 2.</_></rects>
              <tilted>0</tilted></feature>
            <threshold>1.9043569918721914e-003</threshold>
            <left_val>-0.2298111021518707</left_val>
            <right_val>0.6223317980766296</right_val></_></_>
        <_>
          <_>
            <feature>
              <rects>
                <_>
                  18 0 3 10 -1.</_>
                <_>
                  19 1 1 10 3.</_></rects>
              <tilted>1</tilted></feature>
            <threshold>-9.0595688670873642e-003</threshold>
            <left_val>-0.6470863223075867</left_val>
            <right_val>0.0800099521875381</right_val></_></_>
        <_>
          <_>
            <feature>
              <rects>
                <_>
                  5 16 2 8 -1.</_>
                <_>
                  5 16 1 4 2.</_>
                <_>
                  6 20 1 4 2.</_></rects>
              <tilted>0</tilted></feature>
            <threshold>1.1439439840614796e-003</threshold>
            <left_val>-0.2623144090175629</left_val>
            <right_val>0.5206105113029480</right_val></_></_>
        <_>
          <_>
            <feature>
              <rects>
                <_>
                  16 20 4 4 -1.</_>
                <_>
                  18 20 2 2 2.</_>
                <_>
                  16 22 2 2 2.</_></rects>
              <tilted>0</tilted></feature>
            <threshold>2.1793299820274115e-003</threshold>
            <left_val>-0.2234995961189270</left_val>
            <right_val>0.6898589730262756</right_val></_></_>
        <_>
          <_>
            <feature>
              <rects>
                <_>
                  3 20 6 4 -1.</_>
                <_>
                  3 20 3 2 2.</_>
                <_>
                  6 22 3 2 2.</_></rects>
              <tilted>0</tilted></feature>
            <threshold>-4.1359839960932732e-003</threshold>
            <left_val>0.6274325847625732</left_val>
            <right_val>-0.2270223945379257</right_val></_></_>
        <_>
          <_>
            <feature>
              <rects>
                <_>
                  12 13 3 2 -1.</_>
                <_>
                  13 13 1 2 3.</_></rects>
              <tilted>0</tilted></feature>
            <threshold>3.6388350417837501e-004</threshold>
            <left_val>-0.0624702982604504</left_val>
            <right_val>0.2653697133064270</right_val></_></_>
        <_>
          <_>
            <feature>
              <rects>
                <_>
                  9 13 3 2 -1.</_>
                <_>
                  10 13 1 2 3.</_></rects>
              <tilted>0</tilted></feature>
            <threshold>2.4484290406689979e-005</threshold>
            <left_val>-0.4314231872558594</left_val>
            <right_val>0.3520706892013550</right_val></_></_></trees>
      <stage_threshold>-0.7288193702697754</stage_threshold>
      <parent>11</parent>
      <next>-1</next></_>
    <_>
      <trees>
        <_>
          <_>
            <feature>
              <rects>
                <_>
                  12 10 12 2 -1.</_>
                <_>
                  15 13 6 2 2.</_></rects>
              <tilted>1</tilted></feature>
            <threshold>0.0264975298196077</threshold>
            <left_val>-0.3534483015537262</left_val>
            <right_val>0.4880954027175903</right_val></_></_>
        <_>
          <_>
            <feature>
              <rects>
                <_>
                  15 3 2 21 -1.</_>
                <_>
                  15 10 2 7 3.</_></rects>
              <tilted>0</tilted></feature>
            <threshold>-3.0408978927880526e-003</threshold>
            <left_val>0.1862495988607407</left_val>
            <right_val>-0.1468580961227417</right_val></_></_>
        <_>
          <_>
            <feature>
              <rects>
                <_>
                  5 0 1 4 -1.</_>
                <_>
                  5 0 1 2 2.</_></rects>
              <tilted>1</tilted></feature>
            <threshold>3.8869399577379227e-003</threshold>
            <left_val>0.1770913004875183</left_val>
            <right_val>-0.6728320717811585</right_val></_></_>
        <_>
          <_>
            <feature>
              <rects>
                <_>
                  0 0 24 3 -1.</_>
                <_>
                  6 0 12 3 2.</_></rects>
              <tilted>0</tilted></feature>
            <threshold>0.0784570425748825</threshold>
            <left_val>-0.1817615032196045</left_val>
            <right_val>0.7642604708671570</right_val></_></_>
        <_>
          <_>
            <feature>
              <rects>
                <_>
                  5 13 3 1 -1.</_>
                <_>
                  6 14 1 1 3.</_></rects>
              <tilted>1</tilted></feature>
            <threshold>-1.0486539686098695e-003</threshold>
            <left_val>-0.7899382114410400</left_val>
            <right_val>0.1626860946416855</right_val></_></_>
        <_>
          <_>
            <feature>
              <rects>
                <_>
                  10 1 4 4 -1.</_>
                <_>
                  11 1 2 4 2.</_></rects>
              <tilted>0</tilted></feature>
            <threshold>-1.6136779449880123e-003</threshold>
            <left_val>-0.8246343731880188</left_val>
            <right_val>0.1307955980300903</right_val></_></_>
        <_>
          <_>
            <feature>
              <rects>
                <_>
                  1 22 18 2 -1.</_>
                <_>
                  1 22 9 1 2.</_>
                <_>
                  10 23 9 1 2.</_></rects>
              <tilted>0</tilted></feature>
            <threshold>-3.1505990773439407e-003</threshold>
            <left_val>0.4315725862979889</left_val>
            <right_val>-0.2900960147380829</right_val></_></_>
        <_>
          <_>
            <feature>
              <rects>
                <_>
                  15 18 9 2 -1.</_>
                <_>
                  18 18 3 2 3.</_></rects>
              <tilted>0</tilted></feature>
            <threshold>8.5149314254522324e-003</threshold>
            <left_val>-0.1762367039918900</left_val>
            <right_val>0.4955655038356781</right_val></_></_>
        <_>
          <_>
            <feature>
              <rects>
                <_>
                  0 20 20 2 -1.</_>
                <_>
                  10 20 10 2 2.</_></rects>
              <tilted>0</tilted></feature>
            <threshold>-3.7871429231017828e-003</threshold>
            <left_val>0.5010694265365601</left_val>
            <right_val>-0.3350085020065308</right_val></_></_>
        <_>
          <_>
            <feature>
              <rects>
                <_>
                  11 2 3 6 -1.</_>
                <_>
                  11 4 3 2 3.</_></rects>
              <tilted>0</tilted></feature>
            <threshold>-8.7952503236010671e-005</threshold>
            <left_val>0.3573200106620789</left_val>
            <right_val>-0.3179922103881836</right_val></_></_>
        <_>
          <_>
            <feature>
              <rects>
                <_>
                  6 4 4 10 -1.</_>
                <_>
                  6 9 4 5 2.</_></rects>
              <tilted>0</tilted></feature>
            <threshold>-0.0160344298928976</threshold>
            <left_val>0.5801246762275696</left_val>
            <right_val>-0.2513462901115418</right_val></_></_>
        <_>
          <_>
            <feature>
              <rects>
                <_>
                  14 4 3 6 -1.</_>
                <_>
                  14 4 3 3 2.</_></rects>
              <tilted>1</tilted></feature>
            <threshold>-0.0337014012038708</threshold>
            <left_val>0.8349354863166809</left_val>
            <right_val>-0.0873257964849472</right_val></_></_>
        <_>
          <_>
            <feature>
              <rects>
                <_>
                  7 0 10 6 -1.</_>
                <_>
                  7 2 10 2 3.</_></rects>
              <tilted>0</tilted></feature>
            <threshold>-3.9256350137293339e-003</threshold>
            <left_val>0.5039054751396179</left_val>
            <right_val>-0.2894836962223053</right_val></_></_>
        <_>
          <_>
            <feature>
              <rects>
                <_>
                  4 19 16 4 -1.</_>
                <_>
                  4 20 16 2 2.</_></rects>
              <tilted>0</tilted></feature>
            <threshold>7.6866890303790569e-003</threshold>
            <left_val>-0.1749422997236252</left_val>
            <right_val>0.6942020058631897</right_val></_></_>
        <_>
          <_>
            <feature>
              <rects>
                <_>
                  12 5 6 3 -1.</_>
                <_>
                  12 5 3 3 2.</_></rects>
              <tilted>1</tilted></feature>
            <threshold>-0.0143141299486160</threshold>
            <left_val>0.5496819019317627</left_val>
            <right_val>-0.2910588085651398</right_val></_></_></trees>
      <stage_threshold>-0.9089326262474060</stage_threshold>
      <parent>12</parent>
      <next>-1</next></_>
    <_>
      <trees>
        <_>
          <_>
            <feature>
              <rects>
                <_>
                  4 4 4 4 -1.</_>
                <_>
                  4 6 4 2 2.</_></rects>
              <tilted>0</tilted></feature>
            <threshold>-1.5121100004762411e-003</threshold>
            <left_val>0.4938271939754486</left_val>
            <right_val>-0.3361346125602722</right_val></_></_>
        <_>
          <_>
            <feature>
              <rects>
                <_>
                  20 17 3 4 -1.</_>
                <_>
                  21 18 1 4 3.</_></rects>
              <tilted>1</tilted></feature>
            <threshold>0.0142272803932428</threshold>
            <left_val>-0.1441172957420349</left_val>
            <right_val>0.7628192901611328</right_val></_></_>
        <_>
          <_>
            <feature>
              <rects>
                <_>
                  0 4 4 6 -1.</_>
                <_>
                  0 4 2 3 2.</_>
                <_>
                  2 7 2 3 2.</_></rects>
              <tilted>0</tilted></feature>
            <threshold>2.5378810241818428e-003</threshold>
            <left_val>-0.2678318917751312</left_val>
            <right_val>0.5781691074371338</right_val></_></_>
        <_>
          <_>
            <feature>
              <rects>
                <_>
                  0 0 24 10 -1.</_>
                <_>
                  0 5 24 5 2.</_></rects>
              <tilted>0</tilted></feature>
            <threshold>-0.0752354711294174</threshold>
            <left_val>-0.6453105807304382</left_val>
            <right_val>0.2248173952102661</right_val></_></_>
        <_>
          <_>
            <feature>
              <rects>
                <_>
                  12 0 12 2 -1.</_>
                <_>
                  12 0 12 1 2.</_></rects>
              <tilted>1</tilted></feature>
            <threshold>0.0127779804170132</threshold>
            <left_val>-0.1744952052831650</left_val>
            <right_val>0.7601498961448669</right_val></_></_>
        <_>
          <_>
            <feature>
              <rects>
                <_>
                  20 17 3 4 -1.</_>
                <_>
                  21 18 1 4 3.</_></rects>
              <tilted>1</tilted></feature>
            <threshold>-7.9585760831832886e-003</threshold>
            <left_val>0.6706020832061768</left_val>
            <right_val>-0.1249035000801086</right_val></_></_>
        <_>
          <_>
            <feature>
              <rects>
                <_>
                  9 4 6 11 -1.</_>
                <_>
                  11 4 2 11 3.</_></rects>
              <tilted>0</tilted></feature>
            <threshold>7.6486670877784491e-004</threshold>
            <left_val>-0.3794237077236176</left_val>
            <right_val>0.4038473069667816</right_val></_></_>
        <_>
          <_>
            <feature>
              <rects>
                <_>
                  10 14 14 6 -1.</_>
                <_>
                  17 14 7 3 2.</_>
                <_>
                  10 17 7 3 2.</_></rects>
              <tilted>0</tilted></feature>
            <threshold>8.2487072795629501e-003</threshold>
            <left_val>-0.2760877013206482</left_val>
            <right_val>0.2853046953678131</right_val></_></_>
        <_>
          <_>
            <feature>
              <rects>
                <_>
                  6 21 6 2 -1.</_>
                <_>
                  6 21 3 1 2.</_>
                <_>
                  9 22 3 1 2.</_></rects>
              <tilted>0</tilted></feature>
            <threshold>1.7180629947688431e-004</threshold>
            <left_val>-0.3767062127590179</left_val>
            <right_val>0.3885317146778107</right_val></_></_>
        <_>
          <_>
            <feature>
              <rects>
                <_>
                  18 15 6 9 -1.</_>
                <_>
                  18 18 6 3 3.</_></rects>
              <tilted>0</tilted></feature>
            <threshold>0.0505537204444408</threshold>
            <left_val>0.0872597694396973</left_val>
            <right_val>-0.8617370128631592</right_val></_></_></trees>
      <stage_threshold>-0.9843521118164063</stage_threshold>
      <parent>13</parent>
      <next>-1</next></_></stages></myball>
</opencv_storage>
